#ifndef MODEL_WEIGHTS_H
#define MODEL_WEIGHTS_H


const int8_t conv_1_weights_original[] = {-59, -78, -67, -55, -19, -47, -126, 66, 16, -83, 32, -3, 127, 47, 18, 32, 84, -80, 55, -87, -94, 116, 120, -99, 93, 20, 95, -81, 6, -123, 111, -110, -77, -44, -104, -43, 39, 43, 127, -110, 0, -120, -107, 57, 93, 100, 100, 102, -22, 32, -93, 113, 96, 29, -51, 28, -96, 113, -104, -36, 98, -26, 46, 127, 97, -43, -91, -10, 108, -122, 58, -17, -121, -92, 110, -107, -1, 85, 95, -89, 124};
const int32_t conv_1_bias_original[] = {2, -4, -16};



const int8_t dense_1_weight_original[5400] = {-20, -50, -22, -127, -12, 28, -63, 68, 23, -10, 34, -59, -16, -43, 66, 34, -45, 72, -51, -62, -70, -12, -74, 84, -74, -47, -26, -78, 14, -56, 49, -2, 49, -3, -83, -51, -74, -7, -22, 72, 72, -60, 67, 36, 2, -20, 46, -68, -40, 11, -43, -9, 27, -61, -31, -13, -48, -78, 16, -55, -52, -13, 39, -21, -62, -18, 70, -43, -1, -72, 73, -72, -87, 2, 32, -75, 0, -49, 13, -70, 54, -11, 68, 61, -39, 36, 56, -24, 22, 36, -70, -40, -75, 24, 19, -69, -120, 82, 34, -4, 9, -43, 55, -68, -59, -33, -34, -79, -115, 6, -57, -92, 64, 42, -90, 75, 29, -91, -73, 28, -30, 57, -66, -52, -46, 47, -68, -12, -35, -99, -63, -72, 46, 55, -48, -43, -81, 20, -32, -54, 76, -22, -31, -33, 3, 61, -65, 13, 37, 13, -51, -62, 17, -99, -31, 71, -70, 67, -55, -23, -66, 45, -17, -90, 79, -58, -83, -85, 82, -41, 62, -80, 10, 40, -33, -44, 25, -78, 26, 39, 2, -93, -61, -64, 15, 53, -31, -66, -3, -32, 73, -66, -57, 55, -31, 35, -69, 80, 43, -59, -88, -47, -79, -28, -20, -58, -7, -9, -15, 31, -53, 39, -54, 41, 57, 72, 62, 25, 75, 24, -33, 80, 19, -60, 41, -56, -4, 3, -73, 17, 88, -44, -75, -54, -46, 0, 44, -68, 60, -10, -29, 75, 50, 77, 9, 54, 32, 64, 60, -81, 14, 41, -71, -64, -1, -74, -71, 70, -38, -62, -8, -20, -58, 19, 23, 56, 89, -40, -18, 21, 52, -21, 64, 34, 30, 51, 38, -72, -52, -82, -19, -1, -96, -55, 75, -86, 76, 63, -29, -8, 81, -71, 81, -10, 48, 21, 64, 10, -69, -22, -98, -84, 7, -4, 46, -27, -49, -68, -37, -21, -64, -90, -7, -94, 23, -22, -45, -35, 46, 9, -55, -69, 12, -21, -26, -21, -46, 25, -88, 31, 80, -86, -45, -15, -54, -47, 23, -5, 4, -42, -29, -57, 67, -68, 76, 49, 58, 30, -81, 44, 54, -78, 7, -41, 8, 65, 31, -27, 21, -41, -112, 9, -73, -31, 14, -45, -11, -40, -43, -34, 26, -2, -114, 12, -23, 20, 54, -40, -57, 19, 54, 43, -21, 7, -81, 63, 9, -20, 37, -58, -36, -32, 51, -62, -36, 43, -46, -54, 10, -110, 49, 2, -7, -3, -42, -81, -82, 21, 45, -37, -7, -61, -39, 80, 65, -41, 83, -12, -19, -24, -35, -89, 48, -43, -71, 69, -34, 73, 25, -91, -43, -33, -1, 17, 47, 25, -61, 70, -35, -72, -37, 51, -71, -59, 44, -89, 79, 25, 30, -1, -15, 9, 70, -9, -7, 53, -95, -9, 3, -34, -89, 16, 36, -87, -63, 51, 7, -45, -36, -28, -65, -40, -78, -23, 51, 3, -20, -62, -60, -90, -81, 14, -39, 38, 47, -43, -100, 41, -4, -35, -49, -5, -66, -51, -48, 47, -3, 44, -38, 43, 2, -83, 16, 40, -52, 7, -2, 43, 61, -9, -27, -13, -69, 11, -62, 7, -51, 12, 45, -30, 50, 58, -43, -69, -59, -39, 48, 88, 9, -2, -32, 10, -73, 20, -55, -58, -29, -73, 38, 39, -53, -47, -80, 8, 13, 81, 38, -87, -73, 18, -33, 75, -81, 79, -31, -47, -40, -66, -7, -34, 86, 13, 25, 9, -84, -88, 63, -41, -23, -24, -51, 75, -74, -82, -17, -3, -71, 2, -16, 52, 70, -55, 28, -66, -12, 43, 18, -81, -23, 56, 11, 48, 76, 70, 6, -26, 83, 51, -65, 9, 0, 38, -42, -6, -58, -2, 17, -35, 87, -50, -35, -59, -77, -89, -66, -106, -93, -29, 63, -4, -13, 11, 45, -88, -85, 22, 44, -33, 74, -31, 3, 63, -50, -85, -56, 17, 33, 46, 73, -66, -60, 84, 31, -47, 87, 27, 29, -4, -44, -25, 11, -107, -9, 39, -39, -51, 81, -42, 52, -19, 40, 80, 19, -26, -58, -56, 31, 78, 25, -32, 81, -2, -19, -90, 82, 31, 39, -11, 37, -70, -49, 41, -9, -16, 18, -6, -86, 39, 34, 69, 17, 55, 83, -41, -18, -40, 19, 31, -47, 42, 13, 59, -33, -67, 81, -55, 11, 74, -50, -46, 34, 55, 85, 3, 52, 49, 15, -34, -74, -56, -73, -51, 71, 15, -78, 6, -40, 40, 34, -33, 67, 10, 11, 47, -3, 49, 20, 59, 2, -80, -29, -50, 15, -71, 54, 54, -39, -23, -37, 19, -78, -59, -36, -27, -82, -47, -83, -49, 35, -103, -8, 60, 15, 28, -14, -88, -36, 72, -87, 6, -69, -24, 18, -23, 72, 39, 80, -9, -26, -84, 53, 18, -62, 19, 67, 71, 62, 39, 2, 30, 0, -50, -85, -60, 55, -14, -48, -52, 12, -84, 73, -103, 41, -9, 29, 58, -8, 11, -55, -28, -75, 40, 25, -119, 59, -31, -79, 65, 5, 24, 0, 4, -4, -69, 7, -121, -48, -90, -125, -83, 29, 41, 19, -47, -14, -18, 85, -95, 20, -23, 15, -80, -77, 28, 80, 68, -111, 46, -5, 21, -30, 24, -80, 27, 30, -32, 19, 5, -104, -76, -67, -78, -67, 66, -41, 49, -16, -87, 29, 41, -72, 31, -40, -49, 13, 30, -47, -77, -78, 70, 81, 19, -74, 78, 32, -85, -31, -5, 57, -37, 54, -81, 48, -62, 7, -54, 69, -91, -10, -73, 23, 30, 67, -112, -29, 19, -59, 34, 77, 6, -23, 37, 5, 47, -82, -46, 27, 11, -49, -23, 6, 31, 5, -41, 0, 61, 30, -107, -25, -18, -30, 69, 71, 5, -10, 67, -33, 18, 29, -15, 11, -37, 18, 30, 60, -19, -15, -48, -54, 34, -26, -50, -91, -14, -16, -31, 37, -10, 8, -67, 27, 4, -80, 26, 37, -69, -47, -1, 88, 56, -2, 67, 1, 46, -85, -81, -48, 32, -72, -88, 63, -23, 29, -1, 40, -87, 62, 18, -20, 19, 36, -53, 38, 65, 23, -70, -109, 57, 68, 28, -40, -34, -27, -46, -62, -34, 54, 11, -76, 31, -44, -26, 70, -42, -99, -44, -14, 27, 20, -48, -35, 43, -37, 39, -58, -39, 39, 58, -25, -38, -70, -59, 44, -17, -38, -43, 78, 27, -59, 17, -40, -87, 24, 13, 71, -39, 61, 10, -32, 50, -29, 53, -6, -95, -50, -3, 38, -27, -46, -52, 16, 4, -72, 47, 77, -37, -42, 2, 11, -49, -67, -15, -78, -72, -86, -83, 30, -38, -1, 70, -111, 52, 74, 52, 70, 18, -79, 18, -56, -34, 50, -71, 37, -56, -8, 14, 61, 7, 38, -75, 52, -73, -82, 30, 27, 69, 53, -32, 56, 10, -44, -28, -63, 37, 55, -51, -16, -16, 16, -1, 46, -23, 32, 16, -21, -23, -59, -36, 22, -89, -54, -19, -18, -5, 27, -72, -19, 33, 65, 0, 44, -72, -37, -61, 32, 64, -44, 26, 33, -2, -91, -38, -26, 67, 22, -28, 5, -48, -66, 56, -12, -22, 4, -32, 27, 55, 68, -83, -83, 29, -38, -85, -22, 37, 64, -14, 42, -83, 19, 41, 29, 0, 23, 26, 70, 7, 72, 48, -16, 51, -28, -26, 74, -89, -14, -56, -89, -22, -50, -27, 47, 59, 78, 35, 78, -27, -3, 34, 1, 34, -26, 40, 33, -61, -21, 51, 22, -6, 9, -32, 3, -85, 37, -21, -85, -77, -42, -35, -4, 22, 20, 54, 73, 28, 30, -39, -71, -63, 36, -26, -5, -14, 70, -31, -57, -23, -50, -7, -38, -6, 25, -54, -68, 55, -3, -8, -44, -80, 6, 41, -39, 53, 21, -82, 61, 63, 7, -68, 81, 34, 76, 51, -33, -51, -19, -13, -37, -86, 4, -90, -51, -72, 46, 45, 16, 41, 11, 7, -53, 13, -73, -38, -41, 4, -37, 34, -112, -78, -67, -1, -87, -34, 30, -33, 20, -88, -81, -65, -66, -23, -30, 66, 17, 66, 40, 28, -56, 23, -22, 39, -64, -64, -22, -29, -47, -15, 4, 77, -87, -13, 0, -84, -2, -51, 65, 11, 68, 40, 67, 31, -45, 28, -25, 55, -34, 58, -86, -12, -4, -53, -74, -46, -22, -49, 34, 79, 16, -66, 10, -96, -73, 28, 32, -72, -39, 44, 41, -59, -116, 1, 28, -31, 7, 37, 36, -41, 14, -93, 48, 30, 17, -56, -6, -58, 73, 18, -14, -5, 85, -93, -78, 16, 68, -90, -34, -66, -29, -72, -76, -4, 68, -98, 16, 73, 60, -69, -20, 34, 66, -73, -32, 30, 43, 17, -15, 2, -96, -39, 84, 62, 76, 18, -2, 32, -20, 63, -8, -32, -63, -38, -21, 17, -91, 12, -28, 36, -72, -81, 29, 45, -40, -62, 65, 39, 0, 53, 59, 22, 30, -47, -77, -15, -97, 11, 57, 44, -35, -25, 46, 51, -23, 46, 76, 4, 49, 53, 23, 13, 75, 8, -120, -21, 35, -73, 10, -16, -44, -15, -51, 36, 35, 2, -93, 35, 6, -82, -12, 51, -99, -46, -34, -30, 16, 69, -49, 40, -73, -27, -1, 28, 48, -49, -40, -78, 4, 62, -76, -9, 72, -68, 67, -13, 8, 45, -13, -98, -9, 59, -60, -42, 43, -100, 59, -49, 22, 81, -54, -101, 11, 39, -111, 34, -24, -14, -80, -42, 1, 66, -26, -8, -56, -76, 15, 59, -84, -57, 53, 83, 11, -6, -53, -42, -48, -43, 0, 22, 26, -106, 32, 9, -64, 10, 8, -105, -94, -24, -76, -55, 9, -43, -13, 72, -83, -8, 58, -41, 28, -10, -91, 41, 14, -32, -92, -10, 3, 51, -11, -87, 59, 52, 44, 26, -40, 33, -66, 49, 18, 53, 63, -101, 77, -87, -12, -1, 48, 71, 25, -86, 16, 66, 55, 66, 21, 61, -14, 55, -64, -26, -14, -9, -82, 58, -67, -61, -10, -51, -4, 68, 17, -27, -35, 51, -86, -76, -1, 39, 37, -3, 2, 3, -39, 10, -21, 13, 54, 64, -58, 17, -7, 26, -31, -7, 33, -33, 40, 8, 8, -87, 45, 29, -27, -51, -44, -7, 74, 58, 24, 17, -1, 65, -26, 21, -22, -10, -90, -61, -34, -15, 69, 84, -38, 44, -68, 24, -15, 64, -18, -19, -61, -28, 44, 64, 45, 77, -8, -98, 65, -46, -93, 73, 9, -25, 50, -54, -4, 1, -29, -13, -73, 77, -64, 57, -82, 48, -3, -67, 32, -40, 26, 14, 5, -2, -36, -21, -26, 31, -25, -74, -32, 68, 87, -114, 36, -89, -5, 14, -42, -59, -56, 28, 2, 9, -41, -44, -57, -23, -63, -40, -27, -2, -50, 19, 43, 73, -62, -65, -2, -66, -62, -56, -76, 66, 78, -72, -30, -89, -33, -119, -48, 34, -52, -55, -68, 49, 44, -88, -73, 7, -65, -66, -16, 86, -25, 82, 48, 2, 19, -11, -54, -89, 22, -70, 88, -71, -13, 29, 60, -54, 41, -2, 19, -92, -15, -30, -69, -76, -45, -3, 14, -53, 11, 45, 46, -28, 18, 31, 12, -31, 50, 19, -43, -95, 20, 7, 37, -43, 83, -79, -94, -63, -78, -52, -28, -45, 71, 22, -1, -26, 2, 0, -18, -30, 62, -34, 75, -40, -5, 7, -40, 55, -56, 30, -2, -28, -101, 70, 78, 3, -19, -17, -34, -49, 34, 42, 15, 20, -42, 39, -87, -22, 81, 69, 49, 53, 22, 8, 16, -8, -36, -85, 10, -39, -62, 25, -54, -50, -76, -3, -86, -12, 3, 55, 46, 28, 25, 54, -51, -26, 41, -83, 2, -65, -105, -2, 34, -88, 48, 53, -48, 52, 48, 4, -43, 51, -32, -14, 8, -97, -65, 85, -43, 50, -50, 21, 76, -86, -26, 56, -6, -67, 51, -76, 43, 25, 75, 33, -25, -26, -71, -12, -11, -20, -90, -21, -50, 2, -24, 47, 54, 58, 56, 0, 59, -8, 0, -3, -104, 4, 80, 10, -87, 61, 3, -29, -70, -47, 61, 43, 2, 75, 48, -60, 43, 24, -9, 10, 86, -55, 30, -22, -63, 69, -67, -54, -19, 84, -73, -80, 17, -40, 7, -50, -56, -31, 16, 34, -61, -55, -38, -23, 12, -64, -46, 72, 51, 71, -82, -53, 27, -47, 45, 30, -83, 47, -74, -20, -24, 6, -44, -8, 21, -21, 29, 5, -10, 49, 48, 10, -39, 10, -66, 21, 53, -42, 46, -90, 13, -82, 64, -38, -91, -51, 78, -48, -84, -30, 21, 73, 10, -47, 0, -20, -23, -50, 70, 47, 38, 9, -66, 53, 12, -12, -82, -12, -46, 26, -22, -88, -52, 83, -23, 87, -16, -62, 5, -2, 15, -71, 87, -42, 45, 56, 40, -68, 46, 6, 75, -29, -52, 60, 50, -116, -33, 17, -85, 68, -9, 37, 7, 23, -101, 7, -51, -32, -14, -35, 29, -49, -88, -97, -74, -14, -62, 55, -45, -112, -43, 3, -99, 75, 37, 11, -49, -37, -62, -59, 76, -30, 60, -22, -41, -33, 76, -36, -58, -10, 34, 71, -55, -38, -68, 81, -87, 7, 13, -50, -42, 81, 74, -33, -1, -50, 11, -47, -5, -77, 66, -64, -60, -84, -102, -14, 3, 32, 37, 15, 58, -62, 14, -52, -69, -74, 20, 27, 16, 15, 45, -69, 27, 46, 17, 27, 44, -64, 38, -66, 21, -68, 5, -82, -62, 54, 44, -95, 54, -46, 37, -73, -15, 4, -75, -77, 27, -36, 89, -108, 24, -1, -48, 35, 48, -6, 0, -55, -60, 83, -56, -5, 72, -11, -101, -4, 2, -78, -42, -44, 70, 64, 10, 16, -70, 23, -67, -7, 60, -90, -45, 75, -65, -47, -5, -56, 68, 35, 30, -49, 33, 73, 45, -10, 25, 69, 42, 0, -64, -74, -35, -67, 88, -84, 23, 55, -90, 59, 33, -9, 79, -37, -8, 60, -63, 16, -21, -31, -43, 70, 60, -62, 36, 20, 33, -21, -25, 56, 25, 57, 63, -43, -70, -40, -17, 86, 72, 1, 35, -10, -4, 1, 57, 7, -69, -69, -9, -31, -69, 91, -85, -83, -15, 47, 41, -62, 30, -31, -53, 41, 51, -48, 87, 14, -19, -72, 6, -22, 88, 31, 42, -6, -40, -79, 79, -80, 55, 16, 60, 47, -29, -46, -57, -62, 34, 72, 60, 33, -77, -46, -17, -85, 32, 66, 53, 38, 14, -73, -2, 22, 45, -50, 6, -70, -8, -6, 66, -27, 28, 0, -54, 68, -4, -26, 29, -86, 15, 1, -21, 57, 64, -89, 69, -31, 18, 48, -29, -74, 86, 72, 6, -21, 14, -70, -35, -43, 2, 18, 9, 74, -48, -10, 1, 4, 35, 36, -68, 77, 44, 88, -100, -75, -86, 21, 60, 62, -88, 0, 8, 38, 31, -14, -74, -41, -16, -71, 62, -70, -24, 16, 1, 4, 74, 84, -36, 18, 44, 24, -61, -49, 2, -40, 19, -97, -54, 67, -25, -69, -70, 45, 63, 52, 40, -87, 14, 25, -35, 1, -14, 4, -17, -106, 13, 27, -100, -79, -41, -51, -17, 44, -96, 53, 15, 12, -84, -76, -9, 70, -78, 41, -48, -54, 12, -31, 0, 27, 41, -66, 5, -5, -3, 55, -63, 13, -10, 5, 79, 50, -43, -66, 30, -14, -12, 44, 69, -32, -41, -36, -15, -90, 87, 29, 48, 5, 1, 61, -33, 9, 0, -79, -23, -66, 83, -83, 42, 17, 30, 29, -37, -43, -69, -42, -46, 60, -26, -53, -74, -15, 21, -109, -80, 61, -34, -79, -9, 2, -80, 35, -56, 5, 71, 5, 68, 54, 43, -46, 21, -100, 55, 4, 12, 43, 21, 10, 64, 22, -19, 85, -60, -54, 5, 34, 22, -56, 32, 68, -25, -11, 38, -38, 37, 25, 49, 71, -27, -21, -46, 32, 13, 87, -65, -72, -30, 19, -75, -66, 56, 60, 47, 19, -54, 57, -42, 90, -6, 41, -18, -32, 67, -26, -71, 96, 71, -9, 13, 82, 15, 9, 25, 86, 67, -67, 25, -60, -3, 17, 8, -47, -81, -31, -23, -73, 4, -21, -10, 35, -6, 13, 4, -11, 75, 51, -27, 50, 3, -5, -82, 73, 66, -39, -90, -36, -33, -70, 23, 86, 16, -85, -6, -44, -49, -44, -50, 81, -25, -78, 2, -14, -63, 15, -82, -49, 12, -7, 88, 83, -32, -73, -40, 30, -87, 46, 40, -45, -76, 61, 57, -47, 24, 12, -55, 28, -12, -20, 16, 71, -62, 35, -57, 26, 85, -18, -66, 32, 119, -61, -28, -38, -57, 4, 75, 17, -43, -24, 80, -23, 35, -71, 61, -19, -64, -52, 61, 27, 77, 28, 48, 79, -18, 76, -67, 111, 6, -47, 82, -69, 14, 100, -28, 47, 72, 92, -74, -52, -51, -3, 39, -70, -83, -44, 43, -65, 82, -40, -85, 21, -67, -5, 16, 11, -64, -38, 21, 7, 56, -77, 30, -12, -33, 79, 17, -46, -69, 83, 22, 59, -74, 65, -87, -10, 31, 72, 66, 86, -49, -65, -14, -87, -30, -44, -75, -73, 68, 81, -44, 4, -76, -2, 14, 80, 43, -74, 74, -29, -29, -75, -29, -28, -37, 90, -26, 9, 55, -26, -37, 25, 67, -68, -33, -52, 20, 72, 38, -29, 92, 36, 47, 9, 32, -35, -29, 15, 50, 63, 89, -70, 73, 78, 1, -30, -36, 82, 30, -54, 85, -73, 37, 68, 64, 50, 55, -55, 44, -26, -16, 48, -56, -51, -55, 25, -80, 65, -80, -5, -77, -75, -17, -17, -77, -52, 41, 15, 60, -84, 1, -32, -28, 17, 70, -48, -42, 101, 8, -57, 115, 99, -55, -28, -78, -65, 53, 64, -25, 42, -8, -50, 4, 44, 14, 18, 83, 14, 92, 65, 66, -4, 3, -83, 49, -80, -63, -41, 54, 13, -40, 32, -69, 85, 0, 28, 88, -33, -3, -57, -76, -54, 8, -41, 78, 28, -79, 66, 8, -80, -70, 11, 92, -79, -17, 21, 15, -60, -15, 55, 85, -5, 56, -26, 50, -77, 33, -64, -29, 16, 86, -57, 47, -14, 38, 107, -45, 13, -66, -3, -43, 11, 22, -31, 32, 19, 36, -38, -24, 46, 42, -3, -22, 107, 66, -80, 1, -55, -37, 61, 88, -14, 104, -57, -10, 19, -26, -69, 27, 56, -36, 114, -45, 0, 110, -42, -49, 25, 46, 71, 97, -72, -15, 75, -61, 35, 72, -69, -5, -13, -18, 17, 87, -41, -40, 53, 85, 67, 59, -2, 50, 82, -36, 71, 35, 29, 35, 38, 82, 71, -50, -50, 75, -5, -35, 54, 90, -50, -11, 4, 54, 70, -12, 47, 7, 37, 2, -7, 48, 6, 44, -24, 49, -80, -58, -68, -40, 79, -39, 11, 29, 13, 11, 91, 13, 29, 106, 20, -83, 5, -60, 51, 19, 56, 4, 91, 93, 32, -23, 56, -82, 27, 69, -63, 48, 1, -25, 68, 89, -11, -31, 7, 84, 101, 35, -3, 7, 4, -65, 55, -7, 19, 107, -40, -16, -7, 83, 57, 62, 95, -16, -74, -63, 36, -21, 53, -21, 40, -38, 41, 17, -54, -20, 74, -52, 82, 6, 54, -38, 80, 85, 38, -84, 25, -19, -9, -60, -49, -51, -61, 0, 92, 38, -53, 27, 14, 43, 16, -43, 17, 93, -3, 57, 28, -17, 53, 30, 23, 73, 95, 47, -7, -50, 92, 54, -52, -62, -18, 62, 92, 4, 79, -40, -21, 81, 62, 22, -1, -41, -79, 74, 59, 20, 53, -42, 84, 26, -77, -68, 81, 39, 58, 85, 41, -5, 93, -76, -63, -66, 21, -47, 88, -41, -31, 17, 73, 64, 7, 27, 72, 42, 37, 76, -30, -54, -6, 40, -52, 69, 63, -2, 58, 22, -16, 55, -2, 88, 34, -53, 52, 32, -38, -42, -78, 18, -88, -17, 23, 64, 37, 32, -68, 74, -28, -76, -37, -41, -12, 13, 66, -35, 49, 30, 78, 23, -19, -68, -18, -26, 53, -51, 41, -56, -41, 100, 9, 72, -17, -48, 25, 83, -81, -59, 44, -82, -59, 3, 93, -26, 59, 38, -81, -6, 18, 10, 12, -71, -5, -31, 62, -67, 45, -67, 82, 76, 0, -59, 68, 22, 44, -18, 37, 50, -4, 16, -44, -66, 48, -83, 78, 73, -7, 55, 90, 72, -45, 42, -86, -35, -39, 76, -71, 18, -79, 8, 5, 74, 60, -38, 47, 73, -75, 23, 85, 95, -46, -42, 46, -70, -53, 78, -32, 91, -57, 64, 21, 50, 19, -8, -84, 39, 106, -22, 75, 69, -55, -15, -16, -21, 8, 7, -80, -79, 84, 21, 77, 48, -38, 50, 13, 48, -77, -8, 47, 46, -6, -30, -56, 3, -45, -48, 68, 39, 28, -31, 71, 40, 65, 7, 19, 65, -7, -48, -65, 25, 4, -6, -4, -12, -38, 73, -58, 92, -78, 72, 2, 2, -1, -32, 59, -56, -41, 72, -85, 32, 80, -63, -32, 27, 36, -26, -48, -67, -27, -33, 72, -37, -24, -33, 13, 43, 34, 111, -30, 56, -3, -56, 90, 76, 1, 75, 87, -17, -10, 103, -75, -49, -15, -16, -59, 66, 68, -30, -33, 87, 11, 54, 89, 89, 51, -22, 23, 28, 84, 73, 72, 51, -79, 24, 94, 32, 87, 32, -56, 95, -26, 5, 56, 19, 18, -28, 12, 28, -52, -56, -5, 85, 36, 67, 57, -66, -88, 86, -67, -9, -76, 61, -88, -41, 25, -9, 27, -60, 79, 49, 85, 88, 7, -65, 26, -5, 15, -35, 33, -16, 59, -11, 46, -39, -3, -9, -50, 34, 37, -24, 30, 85, 23, -11, 3, -3, -4, 5, -74, 45, 60, -18, 36, 45, 58, -8, -46, 31, -27, -23, 56, -28, 12, 24, 20, 14, 53, -53, -48, -55, -31, 58, -59, -44, 14, 30, 28, 76, 42, -12, -49, -74, 16, 74, 46, 27, 22, -20, 106, -74, 28, 88, 9, 30, -26, -61, 34, 25, -22, -56, -58, 60, 79, -62, 40, -45, -44, 82, 82, -24, -43, 59, -19, 10, 16, -12, -59, -68, -43, -79, 12, -47, 45, -64, 41, -64, 67, 32, -28, -68, 108, -18, 36, 98, 20, -15, 5, -31, -77, 105, -52, 65, 25, -75, 69, 18, 66, 89, 84, -69, -32, 111, -73, 22, 3, 3, -31, -16, -3, 27, 8, -28, -41, 62, -17, 12, -11, 98, 43, 52, 48, 25, 92, 68, 7, 43, 92, -12, -50, 12, 48, -24, -49, -50, -77, -60, -54, -4, 80, 57, 31, 67, -58, 58, -57, 46, -35, -2, 33, 27, 10, 35, 77, 64, -5, 110, 39, -43, -2, 5, 59, -6, 27, -7, 83, 60, -64, 112, 83, 87, 57, 93, -47, 110, -45, -3, 92, 80, 81, 60, 42, -78, 105, 97, 28, -10, 12, -57, -11, 27, -36, 115, 22, -44, 16, 52, 2, -59, -23, -69, 9, -2, 62, 43, -81, -60, -62, -8, 89, 88, 4, -30, -40, -36, 55, -23, 36, 71, -66, 70, -7, -51, 48, -58, 99, -1, -45, 58, -2, 74, 4, 84, -30, -17, 57, -67, -22, -18, -27, 79, -66, -28, -35, -7, 32, 50, -35, -8, 55, 62, -62, 98, -77, -36, 94, 79, -28, 76, -9, -85, -37, 98, -27, 14, -63, 26, -62, 8, 13, 94, 6, 1, 103, 90, -39, -12, 12, -27, 87, 23, 25, 64, -54, -48, -20, -23, -2, 16, -36, -15, 65, 44, 59, 86, -78, 44, 85, 83, 42, -2, 1, 66, 13, -14, 4, 26, -77, -44, 31, 86, -46, -40, -68, -53, 38, -72, -68, -46, 91, 1, -48, -40, -9, -60, -39, -7, -46, -80, -3, 64, -62, 3, -30, 11, 65, 72, -10, 65, -42, -13, -41, 87, -78, -46, 122, 11, 18, -32, -51, -54, 65, 13, -40, 22, -32, -67, 7, -73, -83, 35, 66, -14, -60, 40, 34, -35, 32, -75, -48, 74, 62, 91, 62, -75, 14, -18, 52, 26, 44, 83, 70, 25, -63, 4, -80, 86, -42, 2, 15, 44, 95, -36, 99, 67, 52, 23, 37, -27, 8, 89, -13, -52, -43, -82, -50, -53, 31, -8, 81, -6, -16, 46, 77, -49, -47, 13, 39, 3, -76, -16, 27, -15, -36, 61, 19, -35, -11, 21, 7, -28, -62, -56, 26, -12, 106, 19, -26, -27, 2, -3, 93, -54, -3, 93, 91, -15, 33, -69, 13, 107, -72, -52, 28, -24, 70, -10, 51, 0, -28, 76, -22, 1, 60, 74, 2, 2, 2, 63, 74, -51, -13, -56, -9, -61, 21, -16, 77, -79, -75, 77, -21, -10, -48, 9, 58, -52, 14, -84, -71, -41, 5, 107, -6, 66, 45, -47, 68, 84, 70, -18, 26, -62, 8, 94, 77, 28, 98, -55, -19, 60, -76, 78, 95, 91, -16, 102, 10, 32, -24, 61, 71, -45, 31, 1, 1, 93, -36, 96, 11, -63, -28, -48, -21, -47, 70, 48, 123, 55, 86, 55, 10, 3, 38, -40, 68, -29, 46, -31, 0, -56, 42, 30, 55, -14, -13, 53, -46, -80, -39, 10, -2, -64, -21, -19, -82, -13, -60, 54, 70, -2, 85, 78, -53, 50, -35, -67, -33, 56, 23, 79, 2, 54, -19, -19, 21, 16, -74, 21, -23, -58, -59, 80, 48, -24, -73, 30, 106, -42, 36, 86, -53, -74, -48, -54, 22, 50, 38, 33, 20, 76, 16, -59, 81, 16, -22, -69, 70, 94, 42, 38, 93, -18, 48, 91, 37, -13, 75, 30, 81, 110, 62, -1, 101, 48, 46, 125, -62, 50, 2, 22, 60, 74, 67, -1, 106, 35, 56, 102, -51, -54, -10, -16, -63, 40, -79, 68, -38, 44, 67, -2, 78, -53, 59, 90, -75, -41, -10, -57, 31, -16, -26, 44, 0, 59, -58, -1, 66, 90, 61, 17, -1, 61, -89, 107, -30, 82, 14, 54, 86, 7, -48, 75, 99, -52, -58, 85, 90, -86, -43, 94, -48, 88, -37, -75, 4, 77, 37, 72, -4, 50, -44, -34, -32, -7, 54, 16, 102, 27, 5, -42, 49, -37, -27, 56, -42, 83, -53, 18, 28, 3, 68, 91, -68, 27, 89, 4, 59, 70, 34, -74, 76, -45, -8, 68, 39, -56, -61, 89, 57, 28, 59, 24, 6, 71, -32, -17, -47, 49, -57, -69, -6, -19, 40, -90, 7, -78, -27, 9, -59, 82, 93, 71, -56, 127, 73, -81, -29, 91, -10, -18, 67, -14, -57, -18, 72, 46, 52, 64, 82, 27, 61, -23, -54, 71, 103, 21, -64, 81, 55, 59, 120, -1, -51, 96, 48, -82, 73, -35, -1, -29, 72, 44, -56, -23, -70, -26, -62, -61, -2, 42, 50, -41, -17, -39, -69, -66, -9, -57, 26, -27, -9, -69, -65, -86, -24, -27, 24, -60, -24, 41, 77, 86, 108, 40, -55, 107, -1, 15, -6, 87, 48, 45, 51, -80, 112, -11, -73, 44, 6, 67, 29, -14, 63, -21, 48, -75, 0, -26, -56, 71, 71, -24, 19, -40, 58, 61, 45, 41, 89, 7, 53, 70, -28, 78, 96, 3, -69, 112, 0, 82, 102, 89, 80, 104, 36, -54, 24, 96, -13, -26, -38, 13, 90, 91, 17, 83, 16, 27, 120, 69, 38, 51, 88, 36, 82, -39, 40, 28, 85, -14, -99, -73, 81, 35, 24, 14, 57, 84, -76, 82, 22, 54, 107, 13, 85, 80, -22, 7, -70, -74, -18, -58, -45, -77, 96, 27, 38, 8, 52, -78, -48, -58, -68, 93, 29, -65, 118, 7, -46, 62, 15, -11, 78, -37, 7, -29, -4, 52, -21, 22, -50, -5, 39, 41, 25, 16, 80, -33, 50, -52, 54, 50, -65, 40, 43, 72, 38, 42, 5, -10, -69, 70, -37, -14, 41, 23, -79, 44, -13, 90, 21, 44, 53, -86, 88, 59, 60, 91, 77, -6, -54, -5, -55, -2, -31, 21, -64, 68, -68, -61, 15, -13, -2, 55, -28, 14, 91, -28, -22, 57, -55, 24, -42, 16, -10, -67, -54, -11, 88, -35, -26, 80, -79, 32, -9, -55, 22, -59, -52, 89, -16, -46, -13, -84, 51, 25, -48, 48, -37, 57, 66, 8, -15, 56, 83, 85, 10, 101, -81, -81, 70, -6, -63, 16, 78, -62, 33, -51, -17, -30, -76, 59, 47, -60, 6, 108, -3, 11, 69, -77, -5, -46, -53, 9, 88, 68, 79, 47, 71, 76, -24, -70, 20, 98, 40, 15, 71, -11, -19, 32, -2, 5, 6, 80, 56, 42, -43, -44, 66, -38, 79, 108, -75, 87, 42, -8, -20, 96, -43, 15, 27, 76, 62, 62, 42, 19, -11, 62, -3, 87, 33, -32, 61, -27, 8, 62, 45, -17, 45, -49, -41, 67, 89, -28, 64, -72, -84, -6, -28, -60, 39, -75, -76, -34, 74, -73, 95, 21, 19, 7, -79, 11, 45, -16, 5, 53, 4, 34, 104, -36, -86, 71, -61, -13, -24, -40, -69, -15, -30, -2, 105, 23, -43, 48, -39, 86, 74, 16, -14, -12, -50, 4, 62, -78, 25, 100, 94, 11, 72, 52, 7, 94, -28, -82, 24, -83, 66, -1, 60, 4, -50, 25, 20, 31, -64, 63, 15, -55, -60, -9, -49, 38, 73, 43, 68, 17, 14, 11, -49, 22, -13, 93, 76, -74, 0, 3, -49, -63, -58, -49, 97, 8, 66, 35, 6, -59, 39, 59, 56, -1, -61, 65, 83, -9, -46, 96, 84, 38, 47, 71, 35, 104, -58, -20, -38, -68, 75, -48, 82, 88, -27, -69, -9, 66, -20, -74, -44, 67, 53, 83, -12, 45, -10, -51, 86, 80, -39, 84, 15, -54, -53, 64, 2, -11, 95, -28, -44, 39, 48, 51, -61, 66, -48, 58, -10, -37, -66, -82, 18, -48, 32, 49, -64, 51, -57, 100, -55, 45, 1, -28, 39, 48, -49, 55, 55, -20, -18, 18, -48, -49, 67, -86, -30, 22, 55, 41, 38, -69, -61, 77, -35, -41, -4, 43, -51, -54, 10, -50, -51, -52, -8, -23, -15, 7, -3, -80, 23, -3, 41, 32, -47, -27, -77, 14, -53, -50, 5, -45, -8, 69, -3, -24, -27, 68, 57, 40, 51, -82, 25, -20, 78, 21, 61, 64, 82, 26, -37, 49, -35, 82, 6, -66, 22, -57, 70, 28, 73, -90, 85, -77, -59, -64, -36, 22, -90, 17, 61, 61, 97, -3, 19, 46, 77, 15, 32, -65, 4, 105, -80, -35, 108, 6, 64, 25, -38, -64, -22, 14, -17, 54, -47, 31, -5, -3, 22, 46, -66, 72, -43, -89, -48, 87, -9, 57, -28, 79, -71, -54, 79, 66, 69, -1, 42, -34, 35, 38, 61, -76, -86, -40, -34, 57, 20, 3, 61, 92, 73, 62, 34, 79, -23, -22, -51, -63, -6, 73, -84, 80, -67, 87, -30, 80, 70, 80, -28, -37, 50, -87, 15, -43, 15, 60, -4, 17, -1, -27, 64, -12, 53, -78, 18, 56, -49, -58, 19, 65, -59, 85, -17, -64, -65, 32, 38, -12, 46, 45, 40, 41, -31, -12, 45, -16, 41, -80, -84, 96, 41, -9, -57, -68, 38, 12, 69, 72, -62, 34, -17, -11, -78, 15, 24, -30, -64, -38, 60, 24, -80, 16, 4, 18, -15, -71, 67, -57, -25, 42, 69, 79, 45, 3, -43, -19, -55, -87, 57, 23, -78, 66, -20, -13, 86, -64, -25, 70, 83, -37, -69, 83, -50, -28, -63, 33, 65, -64, 35, 20, 10, 13, -70, -5, 22, 27, -79, -33, 12, -76, -24, -33, -3, 20, 5, 22, 50, 0, 89, 10, -70, -45, 26, 86, -54, 39, -9, 56, -89, 59, -80, 40, -61, -80, 75, 81, -37, -36, 47, -79, -86, 55, 49, -57, 67, -77, 72, 32, -12, -82, -70, -16, -42, 67, -41, 18, 32, 17, 0, 39, 18, -84, 4, -46, 86, -45, 65, 61, 91, 72, 47, 55, -84, 14, 96, 75, -63, -37, 28, 1, -87, 16, 47, -29, -80, -74, -92, 59, 62, -61, -17, 14, 4, -46, -51, 102, -26, 65, 42, -55, -27, 52, 3, -67, 29, 43, -10, -53, -37, -47, -27, 51, 51, 32, 84, 57, 109, -37, 80, 96, -77, -50, -29, 81, 52, 54, 65, 13, 63, -72, 67, 68, -52, -87, 36, 80, 23, 76, 80, 29, 79, -9, 67, -39, -82, 71, -82, 38, 52, -72, -82, -17, -24, -26, 76, 52, -89, -4, -62, -58, -68, 92, 8, 21, 90, -41, 71, 38, -70, -44, -76, 13, -21, 43, 65, 82, -57, -86, -19, 104, -4, 67, 49, -33, -52, 60, 14, 28, 74, 77, -12, -2, -29, -75, 55, -21, 10, -25, 35, 69, -53, 14, -56, 41, 49, -63, 70, -74, 56, 18, 75, -40, -47, 68, 57, 7, -50, -31, 10, 69, -57, 45, 8, 13, -51, 83, -33, -62, 11, 13, 9, 37, -44, 6, 72, -19, -8, 54, 57, 32, -72, 38, -13, 61, -59, 92, -32, 1, 54, -13, 65, 62, 9, 81, 55, 49, -29, -88, 53, -33, 61, 47, -61, -78, 66, -28, -81, 72, 25};
const int32_t dense_1_bias_original[2] = {-7, 7};


const int8_t m2_conv_1_weights_original[] = {-76, -49, -94, 31, 85, 59, 25, 127, 30, -96, 78, -85, -44, 1, -25, -91, 23, 25, 90, -56, 48, 87, -117, -73, -92, 92, -61};
const int32_t m2_conv_1_bias_original[] = {4};



const int8_t m2_dense_1_weight_original[1800] = {-58, -5, -27, 37, 13, 38, 41, -54, -127, -27, 42, -85, -54, 22, 63, 31, 58, -50, 32, -38, 32, -38, 43, 22, -91, -25, -50, 20, 25, -15, 32, -65, -20, -61, 18, 73, -22, -87, -66, -36, 45, -16, 85, -78, -45, -72, 5, -14, 54, -4, 48, -11, 9, 41, 16, 50, -40, -82, 86, 89, -75, 75, 28, -52, 5, -36, 65, 21, -73, 8, 83, -51, -57, 27, 78, -75, 40, 45, 33, 10, 55, 28, -90, 10, -27, 49, -9, -114, -82, -14, -72, -58, 57, 54, 65, 54, -26, -18, -1, 45, -54, -61, 10, -28, 87, 37, 85, 53, 76, 67, 50, -47, 54, -67, 61, -3, 33, -59, 10, 62, -104, 20, 42, 77, -64, -37, 27, 68, 22, 7, -8, -59, -9, -11, 47, 77, 23, -29, 46, -31, -81, 74, -16, 39, -30, -75, -62, 93, 82, 6, -60, -29, -76, 63, -50, 30, -72, -87, 8, 36, 74, -102, 1, 65, 37, -27, -65, -54, -6, 78, 5, 14, -39, -46, -59, 6, 59, 32, -39, -80, -81, 43, 14, -20, -49, -4, 10, -104, -63, -69, -60, -58, -39, -73, 39, -46, 33, 1, 75, -45, -32, 34, 51, 4, 29, -17, -60, -3, 69, 38, 15, 29, 13, -34, -66, -68, -2, 36, 8, -46, -46, -16, -40, 41, 49, 27, 4, -68, 30, 29, 21, 19, 28, 29, -1, 67, 83, -70, -52, -58, -66, -75, -91, 70, -47, -73, -80, -68, 49, -32, -71, -40, -87, -9, -58, -13, 41, 41, -109, 18, 89, 64, 62, -81, -11, 82, 85, -82, -80, -45, -86, -62, 87, -55, 87, -39, 33, 55, -68, -37, -20, -39, 32, -105, 8, 77, 55, 42, 20, -84, 51, -41, 66, 57, 28, 57, -72, 66, 63, 11, 63, -40, -22, 91, -83, 83, -110, -93, -27, 69, 10, 50, -101, -39, -119, 31, 23, -21, -48, 16, -105, 5, 36, -31, -61, -82, -17, 40, -92, -25, 68, 31, 82, 31, 86, 17, 65, -38, 50, -48, -94, -91, 75, -79, 7, -3, -102, 3, -86, -23, -109, -44, -29, -52, -23, -37, 53, -104, 81, -49, 91, 74, 59, 58, -17, -77, -56, 1, 63, -7, -43, -51, -63, -34, -34, -31, -50, -89, 59, 78, -61, 9, 30, -26, -42, -44, 58, 0, -39, -114, 6, -89, 32, -48, 17, 13, -35, -88, -20, -27, -43, 14, 22, -20, -83, -16, 79, -23, 87, 31, -18, 6, -26, 26, 11, -85, -33, 16, -55, -43, 37, 51, -64, 25, -74, -13, 34, -63, 20, 78, -95, -4, 7, 13, 89, 14, -51, 44, -86, -13, 27, -60, -42, 1, 9, -27, -77, -24, 55, -69, 58, -6, -23, 18, 31, 48, 35, -20, 30, 34, 76, -8, -14, -41, 32, -87, 83, 17, -62, -9, -83, -37, -9, -10, 29, 61, -15, -23, -52, 35, 82, 8, -32, -22, 87, -23, -71, 17, -32, -85, 29, 70, 14, -66, -69, -85, 27, -29, -43, -52, -26, -23, 83, 64, 74, -4, -50, 11, 86, -22, 65, -18, 52, -53, -29, -9, 50, -61, -43, -71, -75, -74, 74, 71, -2, 42, 59, -79, 25, 88, -74, -68, 53, 88, -48, 65, -52, -21, 70, -28, -38, -74, 24, -55, 3, 24, 16, 76, 71, -44, -68, -20, 75, 61, 2, 39, -65, 38, -51, -14, -57, 56, -2, -88, 10, 89, -42, 90, -69, 2, 31, -39, -88, -59, 34, 47, 23, -5, 9, -100, 42, -82, 16, 11, -7, -22, 90, 8, -26, -12, 9, -32, -78, -39, 24, -64, 34, 15, -62, -4, -20, -77, 62, 20, -65, -77, -45, 48, 48, 42, -79, -21, 52, -23, 51, 6, -7, -3, -30, 29, -32, -69, -45, 10, -46, -98, 68, 58, -11, 58, 50, 84, 87, -31, 31, 6, -86, 17, 51, -27, -88, -25, 29, -5, -42, 45, -72, 81, -88, -86, -86, -82, -50, -12, 39, -15, -77, 26, 76, 62, -87, -49, -23, -92, 2, 19, 3, -20, -45, 2, -75, -22, -8, -95, -26, -102, -56, -68, -102, -75, 90, -29, -76, -25, 43, -50, -91, 8, -64, -38, -57, 8, -28, 8, -61, 20, 86, 30, 14, -34, 50, 61, 28, 14, 62, -28, 9, -18, -35, -21, 88, -69, -117, 64, -78, -12, 60, -16, -77, -79, -59, -45, 69, -40, 53, -62, -38, 5, 66, -17, -42, 13, 61, -34, -14, 37, 53, -59, 85, 49, 54, 73, 33, -47, 6, 53, -86, -25, -2, -34, -109, 58, 38, 18, -10, -58, 81, -70, 25, 15, 67, 60, 64, 11, 62, 58, 29, 13, 73, 49, -54, -67, 39, -13, -10, 46, 60, -17, 12, -75, 36, 58, -15, -36, -19, -44, -18, -72, -86, 53, -31, 82, 62, -38, -78, 30, 68, 42, 22, -17, 26, 14, 2, 31, 68, -66, 44, -62, -3, -18, 58, -41, -64, -53, -36, -13, 49, 21, -68, -53, -48, -4, 49, -53, -45, 44, -19, -85, -19, -4, 51, -109, -40, 34, -79, -72, -60, 5, -72, -73, -121, -22, -110, 49, 92, 15, -111, 27, -70, -84, 34, -11, -76, -85, 53, -48, -20, 44, 34, 47, -5, 86, 73, 54, 61, -24, 19, -10, 80, 19, 37, -13, 3, 9, 69, -94, 54, -41, -17, 85, -90, 42, 64, 55, -25, 66, -84, 15, -10, 88, -66, -74, -11, -48, 20, 79, 3, 5, 19, 73, 32, 27, 28, 47, 77, -15, 39, 41, -29, -29, 74, 40, 35, 51, -14, 87, 64, -28, -18, -26, 59, -53, 21, -72, -53, 101, 81, -5, -73, 32, 85, -38, 10, 13, 17, 8, 37, 27, 75, 22, 23, 50, 65, 59, 83, 69, -48, 83, 7, 55, -16, -25, 44, -54, -17, -15, -50, 57, 79, -1, 37, -58, -30, -22, 80, -17, 65, -32, 51, 64, 72, 105, 74, 49, -40, -57, 74, -82, 58, 71, 34, -34, -13, 2, -69, -68, -32, 34, -28, -73, 47, 38, 21, 38, -10, 48, 67, 79, 20, -47, -48, -62, 91, 106, -17, 50, 21, -82, 56, -2, 33, -27, 7, 22, 21, -56, -37, -48, 90, 55, -39, 127, 10, 49, -21, -50, 75, -53, 89, 23, -74, 42, 38, 107, 116, 66, 28, -17, -52, 61, -56, -6, 21, 43, 22, 76, 39, 47, 11, -46, -17, -19, 57, 31, 95, -76, -1, 31, -68, -30, -12, 57, 55, 17, 63, 96, 26, -16, -3, 53, -58, -73, 33, -30, -54, 82, 80, -38, 74, 75, 62, 39, -19, -50, 11, -41, -2, 82, 8, 34, 78, 69, -82, -74, -24, 43, 31, -37, -79, 24, 21, 36, 68, -55, -2, 88, 24, -22, 5, -57, -56, 33, 69, 62, 74, -36, 37, 89, -4, 88, -79, -3, -34, 72, -5, 37, -1, 48, -10, 73, 11, 4, -7, 35, -3, 47, 9, 39, 35, 30, 70, 6, 9, 65, -57, 65, -8, 1, 34, 11, -10, -21, -28, 71, 60, -51, 96, -68, -1, -6, -55, 70, 38, -68, -35, 6, 74, 84, 4, -22, -15, -49, 6, 70, 23, -44, -69, 60, -57, 38, 7, -19, 11, -43, -17, -17, 29, -36, 80, -6, 21, 57, 43, -23, 85, 74, -82, -12, -12, 68, 49, -8, 113, -45, -52, 15, -23, -53, -83, 33, -79, -25, 7, 3, 83, 82, -17, -35, 20, -37, 59, 55, 14, -32, -64, 62, 65, -56, -27, -22, 90, 62, 28, -26, 47, -76, 85, -27, -81, -14, 25, 50, 0, -12, -3, 57, 61, -37, -3, -13, 54, -1, 63, 45, 20, -10, -67, 88, 48, -16, 53, 47, 54, -3, 41, -68, -20, 6, 65, 97, 22, 50, -20, -13, -51, 31, -30, 37, -8, -9, 34, 52, 11, 84, -79, 50, 35, 57, -7, -28, 54, 2, -20, 30, 72, -54, 19, -61, 6, 67, -12, 83, 34, 15, -9, 7, 2, -51, 32, 31, 84, -67, -25, -45, -28, 9, 67, 103, 56, 1, 1, 4, -28, 39, 13, 7, -23, -63, -68, 25, 13, 2, -58, -2, 27, -77, 18, -55, 36, 57, 30, 54, -50, 40, -62, -32, -45, 78, -25, 82, 2, -74, -75, 35, 40, 6, 43, -22, -47, -83, 36, 15, 8, -54, 9, 73, -16, -33, -73, 59, -57, -57, -62, 4, -26, 84, 38, -47, 24, 33, 56, 45, -30, 33, 67, 52, 54, 51, 36, 45, 34, -45, -52, -27, 15, 69, -28, 23, -41, 39, 31, -16, 83, 61, -6, -23, 62, 19, 35, 5, -9, 57, -7, -58, -77, -26, 20, -51, -4, 12, 3, -40, -60, 10, -4, 70, 60, 76, 48, 24, 52, 44, -75, 17, -41, -27, -49, 1, -81, -55, 7, -47, 43, 40, -22, 36, -73, -41, 76, 70, 31, 43, -17, 9, -19, 82, 44, -38, -13, 83, 69, -42, 17, 28, 68, 17, 9, -59, -51, 1, -21, -31, 13, 68, -3, -9, -16, 20, 82, 93, 65, 83, 73, -68, -67, 9, 6, -33, 44, 84, -41, 70, 62, -3, 56, -45, 51, -80, 33, -12, 65, -47, 12, -15, -68, 0, 32, 36, 83, 93, -30, -31, 75, -50, 55, 41, 5, 59, 45, -30, 38, 7, -74, 83, -51, 3, -9, -40, 57, -16, -37, 2, -78, -30, 30, -16, 3, 61, 10, 62, -74, 46, 49, -76, -9, -35, -48, 37, 36, -30, 56, 32, 66, -69, 40, -74, 49, -20, 7, 37, 50, 22, -69, -71, -10, 36, -77, 67, -29, -78, 41, 33, 24, 37, -47, 2, 69, 20, -40, 33, -75, -76, 82, -7, -1, -14, -51, -81, -20, 46, 7, -34, 66, 73, 46, -43, 43, -57, -35, -23, 46, 22, 22, -24, -10, 47, 51, 35, -72, 78, -23, -64, -8, -39, 77, 32, -7, 38, 83, -38, 1, -4, -22, 77, 20, -36, -1, 67, 40, 71, -42, -74, -43, 22, -4, 64, 81, -48, -59, -21, 41, -77, 75, -2, -48, -2, -10, -4, -52, 73, 45, 47, 56, 35, -18, -17, -2, -40, -68, -52, -35, -71, 67, -53, 3, 86, -45, -33, 60, 15, 58, 4, 58, -81, 66, 22, -42, 65, 3, -52, -45, -18, -49, 74, -2, 5, 79, -71, 52, -82, -63, 73, -27, -72, 7, 30, -44, -9, 5, 70, 51, -66, 61, -3, -68, -22, 71, -80, 27, -80, 36, -66, 22, 7, -53, 57, -55, 69, -16, -18, -77, -6, -77, -17, 32, -38, 17, 40, -80, -22, -9, -34, 74, 30, -14, -16, 28, 33, -63, 33, -23, 101, 47, -81, -36, 80, -48, -27, 60, 8, 15, 78, 21, 62, 79, -66, -64, -10, 24, -48, -26, -22, 58, -20, -57, -7, -67, 46, -39, -32, -32, 85, -28, -75, -10, 56, 9, 42, -52, 83, 77, -33, -19, 23, 19, -82, 80, 24, 34, -79, 51, -46, 76, 79, -69, 32, -4, -53, 81, -7};
const int32_t m2_dense_1_bias_original[2] = {-1675, 1512};











#endif
